<?xml version="1.0"?>
<opencv_storage>
<cascade>
  <stageType>BOOST</stageType>
  <featureType>HAAR</featureType>
  <height>24</height>
  <width>24</width>
  <stageParams>
    <boostType>GAB</boostType>
    <minHitRate>9.9500000476837158e-01</minHitRate>
    <maxFalseAlarm>5.0000000000000000e-01</maxFalseAlarm>
    <weightTrimRate>9.4999998807907104e-01</weightTrimRate>
    <maxDepth>1</maxDepth>
    <maxWeakCount>100</maxWeakCount></stageParams>
  <featureParams>
    <maxCatCount>0</maxCatCount>
    <featSize>1</featSize>
    <mode>BASIC</mode></featureParams>
  <stageNum>5</stageNum>
  <stages>
    <!-- stage 0 -->
    <_>
      <maxWeakCount>3</maxWeakCount>
      <stageThreshold>-1.7055352926254272e+00</stageThreshold>
      <weakClassifiers>
        <_>
          <internalNodes>
            0 -1 0 1.7611595988273621e-01</internalNodes>
          <leafValues>
            -9.8609733581542969e-01 1.</leafValues></_>
        <_>
          <internalNodes>
            0 -1 10 -4.5979446172714233e-01</internalNodes>
          <leafValues>
            1.2407143414020538e-01 -9.7085714340209961e-01</leafValues></_>
        <_>
          <internalNodes>
            0 -1 11 -3.7458036094903946e-02</internalNodes>
          <leafValues>
            7.0071065425872803e-01 -8.4350943565368652e-01</leafValues></_></weakClassifiers></_>
    <!-- stage 1 -->
    <_>
      <maxWeakCount>3</maxWeakCount>
      <stageThreshold>-1.6681308746337891e+00</stageThreshold>
      <weakClassifiers>
        <_>
          <internalNodes>
            0 -1 14 -3.2675880938768387e-02</internalNodes>
          <leafValues>
            6.0000002384185791e-01 -9.8411124944686890e-01</leafValues></_>
        <_>
          <internalNodes>
            0 -1 2 1.7171026766300201e-01</internalNodes>
          <leafValues>
            -9.2015057802200317e-01 8.2959741353988647e-01</leafValues></_>
        <_>
          <internalNodes>
            0 -1 6 -3.5792745649814606e-02</internalNodes>
          <leafValues>
            2.3613092303276062e-01 -9.6363860368728638e-01</leafValues></_></weakClassifiers></_>
    <!-- stage 2 -->
    <_>
      <maxWeakCount>3</maxWeakCount>
      <stageThreshold>-1.4408352375030518e+00</stageThreshold>
      <weakClassifiers>
        <_>
          <internalNodes>
            0 -1 4 3.3460944890975952e-02</internalNodes>
          <leafValues>
            -9.8608350753784180e-01 6.6666668653488159e-01</leafValues></_>
        <_>
          <internalNodes>
            0 -1 8 -4.7417078167200089e-03</internalNodes>
          <leafValues>
            7.5568735599517822e-01 -9.4470423460006714e-01</leafValues></_>
        <_>
          <internalNodes>
            0 -1 5 -8.8209155946969986e-03</internalNodes>
          <leafValues>
            4.8995250463485718e-01 -9.1115987300872803e-01</leafValues></_></weakClassifiers></_>
    <!-- stage 3 -->
    <_>
      <maxWeakCount>3</maxWeakCount>
      <stageThreshold>-1.9106119871139526e+00</stageThreshold>
      <weakClassifiers>
        <_>
          <internalNodes>
            0 -1 12 -6.8308964371681213e-02</internalNodes>
          <leafValues>
            1. -9.8412698507308960e-01</leafValues></_>
        <_>
          <internalNodes>
            0 -1 1 -3.1648075580596924e-01</internalNodes>
          <leafValues>
            -9.8038941621780396e-02 -9.8486900329589844e-01</leafValues></_>
        <_>
          <internalNodes>
            0 -1 7 -2.0550604909658432e-02</internalNodes>
          <leafValues>
            5.6875663995742798e-01 -8.2844603061676025e-01</leafValues></_></weakClassifiers></_>
    <!-- stage 4 -->
    <_>
      <maxWeakCount>3</maxWeakCount>
      <stageThreshold>-1.6201887130737305e+00</stageThreshold>
      <weakClassifiers>
        <_>
          <internalNodes>
            0 -1 13 2.3233376443386078e-02</internalNodes>
          <leafValues>
            -9.8608350753784180e-01 6.6666668653488159e-01</leafValues></_>
        <_>
          <internalNodes>
            0 -1 3 -1.2969668023288250e-02</internalNodes>
          <leafValues>
            1. -9.1822081804275513e-01</leafValues></_>
        <_>
          <internalNodes>
            0 -1 9 -3.1592356972396374e-03</internalNodes>
          <leafValues>
            2.8411561250686646e-01 -9.2753469944000244e-01</leafValues></_></weakClassifiers></_></stages>
  <features>
    <_>
      <rects>
        <_>
          0 5 12 12 -1.</_>
        <_>
          4 5 4 12 3.</_></rects>
      <tilted>0</tilted></_>
    <_>
      <rects>
        <_>
          0 5 22 16 -1.</_>
        <_>
          0 13 22 8 2.</_></rects>
      <tilted>0</tilted></_>
    <_>
      <rects>
        <_>
          0 8 12 12 -1.</_>
        <_>
          0 12 12 4 3.</_></rects>
      <tilted>0</tilted></_>
    <_>
      <rects>
        <_>
          0 11 1 6 -1.</_>
        <_>
          0 13 1 2 3.</_></rects>
      <tilted>0</tilted></_>
    <_>
      <rects>
        <_>
          0 11 20 3 -1.</_>
        <_>
          0 12 20 1 3.</_></rects>
      <tilted>0</tilted></_>
    <_>
      <rects>
        <_>
          2 12 14 2 -1.</_>
        <_>
          2 12 7 1 2.</_>
        <_>
          9 13 7 1 2.</_></rects>
      <tilted>0</tilted></_>
    <_>
      <rects>
        <_>
          4 3 17 6 -1.</_>
        <_>
          4 6 17 3 2.</_></rects>
      <tilted>0</tilted></_>
    <_>
      <rects>
        <_>
          5 6 1 14 -1.</_>
        <_>
          5 13 1 7 2.</_></rects>
      <tilted>0</tilted></_>
    <_>
      <rects>
        <_>
          5 8 3 1 -1.</_>
        <_>
          6 8 1 1 3.</_></rects>
      <tilted>0</tilted></_>
    <_>
      <rects>
        <_>
          7 16 10 2 -1.</_>
        <_>
          7 16 5 1 2.</_>
        <_>
          12 17 5 1 2.</_></rects>
      <tilted>0</tilted></_>
    <_>
      <rects>
        <_>
          9 0 11 24 -1.</_>
        <_>
          9 12 11 12 2.</_></rects>
      <tilted>0</tilted></_>
    <_>
      <rects>
        <_>
          17 8 4 9 -1.</_>
        <_>
          17 11 4 3 3.</_></rects>
      <tilted>0</tilted></_>
    <_>
      <rects>
        <_>
          18 4 6 7 -1.</_>
        <_>
          21 4 3 7 2.</_></rects>
      <tilted>0</tilted></_>
    <_>
      <rects>
        <_>
          18 6 3 9 -1.</_>
        <_>
          19 6 1 9 3.</_></rects>
      <tilted>0</tilted></_>
    <_>
      <rects>
        <_>
          18 12 6 4 -1.</_>
        <_>
          18 14 6 2 2.</_></rects>
      <tilted>0</tilted></_></features></cascade>
</opencv_storage>
